-0.20406613983118405 -0.003139676744714012 0.2782801484565031 -0.1162612836951622 0.5548206083169176
0.3273392961183135 -0.18095724733100058 -0.3381074042482292 -0.6311569162304109 -0.562629643693133
-0.9492776281319123 -0.13231963242120512 -0.8913809000643076 0.8244143341792558 0.6393144756782689
-0.06719299477765121 -0.2758724643039879 0.42276754626407737 0.14476448013641924 -0.1637864028238631
1.0927805106657147 0.3434705149059708 -0.281944549324199 -0.37247674825464394 0.37373970186551864
0.4584013549899272 0.061766021966841424 0.7473851320664676 -0.5268092443460816 -0.6992862253279619
-0.06269752653454355 0.10814787910873196 -0.5241706004283856 -0.9413853585698042 -1.0217776159725542
-0.2301507239214372 -0.2933989917618223 -0.41049351866064687 0.26639571936118595 -0.16304163728766974
-0.3313014305574115 0.4941765157219817 0.10712615624494824 0.15608299689393465 0.05494187728498394
-0.6934496010823852 0.45353837355977367 -0.4517448884145654 0.8793735823971237 0.18834029148254156
0.1617539792100413 -0.9800787629476994 0.16202215219629157 0.3471323992377364 -0.5456762606434699
-1.1268382087778726 0.0024675430397978703 -0.5433936871430747 -0.6718919186372694 0.2887880872725962
0.3369948405021709 -0.03503585608596139 0.18247382601864656 -0.6956215949637568 -0.9173734059153841
-0.09836723009867607 0.6135487489062597 -0.7908356073945443 -0.5057564708745089 -0.8009221943003713
0.020886287136818407 -0.3508742699065601 0.17265095322236723 0.413420089018116 -0.4648834330865098
-0.35069157279936103 0.5952913783380153 0.02352819613476443 0.37940099118539633 -0.0009278200225145985
0.5196848717928639 0.5673822634203709 0.5777507259641129 -0.11624534500602238 -0.23039321898845974
0.5594099745028086 -0.42950592287535094 0.06742209851896312 0.14993919883181628 0.2755837208158438
0.648920125426909 0.09637481450145079 -0.19081333097717348 0.5706480951754895 0.42184964550599735
-1.164472332034931 -0.5423370190815694 -0.6982609644431433 0.32670201567867213 0.3324338699723054
0.2993980293525758 -0.5767026422945906 -0.8569403954271454 0.34380271958237635 0.49605707765300294
-0.07008764690852418 -0.0022919561547350593 0.7022259227767698 -0.3248615723883704 -0.07776728808803526
-0.12960828582605327 -0.4125488884211753 -0.4859495716192436 0.2795194884238623 -0.4979644785776446
0.49390338851459314 0.718822507396892 -0.9117130120005581 0.862956577042616 0.30028761387731767
0.26506100424001083 -0.3657003076555607 -0.11962278613976239 0.09703457760464272 -0.3101325394736128
0.5536736510408228 0.6927257462962434 0.9716239633501506 0.08720337864274527 -0.22812514527559
0.6484587314159244 0.5688451517151265 -0.23764011490443884 -0.6328944503924321 0.1994818845443012
0.7366944674988428 0.44827103535142915 1.2021664478154146 0.43461358630940117 -1.288882088403634
-0.5686453850435638 -0.39696810959918893 -0.7533947486005244 0.856343605210855 0.2739918658801565
-0.6392238645834671 -0.5239058542401984 -0.5116373715268877 -0.5783283726961922 0.8291686663371175
