0.6594438558574307 -0.535582719173951 0.3852377161850244 0.06839804834171218 -0.6346195480791735 -0.2683891390188918 -0.7644909734562952 -0.12839729611969772 0.7463384064249022 0.08938474053318089 0.08441136356020844 0.573642775286529 0.7651582607464489 0.511006633661464 0.2672562446943648 0.30097179708112826 0.5072742550025159 -0.5261926836529527 0.5968835825288423 -0.36570542602894923 0.34186787315788353 0.6367988806236764 -0.6680098454685492 -0.7768556567538438 0.6300393086503575 -0.10668610267422916 -0.05076909837382451 -0.26536724781050186 0.10107845270813304 -0.38866154153380406
0.40056505844086554 -0.6739770687845624 -0.8927496164124302 -0.24156002535322504 -0.7321116184131822 -0.12862629993316615 0.03671631861231879 0.03224091274954663 0.6552357251542282 -0.5721116264158537 0.007780169587159707 -0.22921679274237203 0.31142911781920646 0.32423393450959537 0.5019355511017822 0.19422417465869662 0.6286989651533691 0.7079677802170949 -0.17986470964404572 0.11258471006589754 -0.20843947634331733 0.4677645953171314 0.10786255586118751 -0.09627340381646832 -0.08980412650995745 0.6277632009712072 -0.055846267842072576 -0.4522056123804934 -0.38432331147113025 0.16691666049368575
0.37104558363789 0.2384765750794838 -0.38648054880318844 -0.3849260086514426 -0.16218840809735988 -0.11815375663460355 -0.7230884761514911 -0.4670311093290604 0.31869895777805474 -0.1908161684590363 0.1991017343521154 -0.7502514212787181 0.4564318710043904 -0.35673785266117036 -0.11930302370876408 0.6781146205893058 -0.10894175088400229 -0.5121348398307477 -0.4978057133896702 0.053513981950029856 -0.5384110803272105 -0.29332861778563735 0.2925950693053613 -0.5769941203969208 -0.15667051911980645 -0.22041428175870004 0.46078262876952786 -0.5293700653242217 0.6981762342841903 0.1735776209478359
-0.6690382998295836 0.033632524946428335 -0.16360913615932185 0.45810334533917124 0.033019726661366995 0.11216814642148726 -0.11732012478471482 -0.1918950596647416 -0.13328055655345616 -0.07863063034389108 -0.08781661273801862 0.6587658188864286 -0.7666533738808163 0.3051750985371595 0.43190929064642547 -0.5586197818396115 -0.6143861249669452 0.35995036384826906 0.6138520342063756 0.005813115959763923 0.1742889318089498 -0.5991645889688904 -0.40292005629331307 -0.14624597436841724 0.681853463688677 0.7295175435877209 0.16445123361574615 0.6725833006012155 0.55903352399456 -0.31172465813102207
0.6493718680964126 -0.038369142521870084 0.516200074357138 0.45679332755588425 -0.46478236712843074 -0.3649941729797587 0.7131629975887044 -0.560448281459392 -0.5280283615729415 0.3017933147610161 -0.7122683465701672 -0.5961820619605023 -0.3748643918206969 -0.7787640212016957 -0.7932124634418299 0.6773390465303059 0.38765925234920756 -0.375141458547466 -0.3330093380529546 -0.7708814851660922 0.3533107775815314 -0.6007137807767232 -0.20534400255955737 0.04523627041847947 -0.14996322520731328 0.5620603681322072 -0.6356371783904841 -0.1702925401695562 0.5970589400270497 0.470085367367736
0.6568937807679638 0.6703936050871525 0.14344351381502676 0.14865505791428743 0.25845373407502586 0.22345767819016618 0.4207355677984501 0.14522052128712598 -0.4145585076699024 0.15393146590411375 -0.7359036987750219 0.6761300196737853 0.17480311587203892 0.03789241081155675 0.24088549679285523 -0.7381417167262212 -0.10821332347371966 -0.5167409912902333 0.750813028774051 0.6039499563896035 0.5606248760537136 -0.03073096638554954 -0.3988727762541711 0.20678043427025705 -0.01789065186737586 -0.7226447605836157 0.11917594837841436 0.431608766561866 -0.26711124908588796 -0.24999641602030934
-0.4385877936683206 -0.1735849539093887 0.0349233164401668 0.6341550361633346 -0.4902694114307851 -0.6589268905900397 0.7887246635923029 0.33437464545790324 0.2790124753980101 0.18817138726532281 -0.3193609937615176 0.5237326026668432 0.3079090949788314 0.37585887312779137 0.4543077550439743 0.39793703318463197 0.5738683840481833 -0.030112094479364724 -0.09433976884710321 0.6571623917014282 -0.2361001362126442 0.4929571822288066 -0.6258484875394108 0.06125294972136564 0.06257215398570981 -0.5146811906127055 -0.34700000153096305 -0.44915951625711215 0.6461521531129615 -0.32644893502295325
-0.05130668890032926 0.11484510884166503 -0.6590634884633885 0.4759968596961632 0.6780138628735152 0.013440330913596804 0.5760725573234716 -0.31607969990711376 -0.7480382491640232 0.10318651074906943 -0.3347081373331503 0.4358616174900079 0.7387193938417759 0.45171251524775885 0.16557946191334422 0.5086162003715617 -0.3450680543390653 -0.6136572418620927 -0.45063010938709025 0.6192546297202048 0.6332589117933368 -0.40430112933903345 -0.520952799962768 -0.08891124895034808 0.10143732465162347 -0.7118164973466167 0.5212891558484085 0.17656865306561575 -0.6421905630727094 -0.020321524183837352
-0.5293347674104154 -0.6319547744858295 0.25864590014274874 0.5726248265888428 -0.6775632913158953 -0.5500943969344737 0.6596943705532144 -0.7266795212704062 -0.6958907251457168 -0.44515821313815174 -0.05636532728511125 0.4623321279305624 0.23706512298590804 -0.5035064080306748 0.34716977051840175 -0.14410481615775134 0.10075752666111477 -0.5929043505253477 0.17459711136362982 -0.1833065632726525 -0.7396707921219711 -0.10240911270304946 -0.7392114084744935 -0.5389310557586325 0.6501638085125152 -0.2875458829071692 0.041779683408123366 0.2510357382291905 -0.5325692296329766 0.5870036659706973
-0.39914595191372404 0.3960645545629964 -0.35194260018617346 -0.16450831072590466 -0.7406879876382095 0.8264731423458131 0.3300863496680815 0.4323876079783872 -0.16078692404786518 -0.5082361785051426 0.444011068066806 -0.01866019044885195 0.4821752104951717 0.04589466401308901 0.139774306674211 0.7399495046143066 0.35998662798580155 -0.33911114321111524 0.7728844980070144 0.9004975585791418 0.5923970020133571 0.2044821788418135 0.4400728812712776 -0.31444837605435594 0.4005424835970796 0.7746837915201863 -0.7459788352432695 0.6911639847929699 -0.06371643831611033 0.5661071424120891
0.27665100409794807 0.14725745668424026 0.3232508405218862 0.5067838441316704 0.6595382699260508 -0.6215918931665734 0.43433834501518587 0.06893262868797048 -0.5718101164920568 -0.2581373292260332 -0.8031014447429321 -0.6086581884318134 -0.10154711078354481 -0.3786366304687597 0.3973694038205248 -0.14883604194911149 -0.048293646845800176 -0.5961607162900974 0.27071940462211785 -0.5917028061617603 -0.038434548493732644 0.019298733782286956 0.7192481684715837 -0.3582073716880957 -0.49519572140416873 -0.8071508132464598 -0.26971830023906496 0.10897704649744837 0.6232464711793421 0.5735741563997596
0.5996139826285704 0.7834159602358812 -0.515835934491721 0.3295941272798279 -0.7616858989812205 0.6446542991818095 0.5044583691938113 0.3664275946325319 -0.048160707198336275 -0.5093631646189596 0.23307816458983452 -0.08183386994354608 0.06231478535860394 0.48330572027204494 0.7927936392336948 -0.10900002435343348 0.23933083659439744 -0.30915834466084474 -0.41409758742495967 -0.5652731218942881 -0.12287662300592925 0.364266545182411 0.5970244262824086 0.8096536039379505 0.3937401218002688 0.4672283013527336 -0.392573530050744 -0.061483807265497355 0.7137771946118395 -0.6478829442007167
-0.19640496970774618 0.700772539174354 0.1866100028662568 -0.4198301594813513 -0.632550659610311 -0.6977860876640427 -0.5307012988239486 0.5510007599640584 -0.5799665179344938 0.8605344093888567 0.2906740879313272 0.7973098757275433 0.6414844714923142 -0.5147036046464512 0.014211343979437931 -0.7463260159177858 -0.2180995076207514 -0.5897265161210097 -0.005886328863545436 -0.3521661215642221 0.3448448747070501 -0.16016060016546418 0.5743941689506084 0.807511119034382 -0.4474094570984574 -0.5112454988743709 -0.5864964444665628 0.19529049691549563 0.6627510927162136 -0.10352248755025237
-0.11489366120578426 -0.5124989866063775 0.8517554599619123 0.5294891922391518 -0.4395404634540448 -0.13656617389526454 -0.41494788202412836 -0.4446433221464567 0.0011008136336854454 0.136151338487066 0.21063286204642503 0.036901557546961374 -0.11675519037280134 -0.37763394879127354 -0.5328407385763345 0.5312903638009918 -0.4343555586084267 -0.08186228680086212 -0.061166368208078574 0.6115358194720516 0.3327396406607094 -0.7524214349621168 -0.18253352823784444 0.8776817026059622 -0.03361676448970298 -0.28274618364346016 0.11188153170495736 0.06932945730237496 0.6541144377132802 -0.4005477052697661
0.545202221126612 0.5916043875696638 0.44609434185403063 0.23696401145906615 0.6744823130324309 0.7126241208398632 0.8640069038628403 -0.08125738497269493 0.2787717370835375 -0.4596086316186761 0.5470565088291823 0.16526758531471175 0.6792886069167244 0.5128225245431496 0.3695666031601468 0.07667876722464362 -0.5976296642179075 0.5856386864522612 0.17857163815241858 0.11219401784088624 0.3513576046116131 0.16706975167722396 -0.16451619296289574 0.2852326483260506 -0.18891902316631864 0.22071248597332052 0.4484280883310711 -0.37059407188948545 0.2516795921323904 0.6091092670406952
-0.3508629150447751 0.19743296829324333 -0.7174908489148886 -0.3115782600414295 -0.4368666092957782 0.10094389904229677 0.27716801071133 -0.7534502824081648 0.11660492658766665 0.5844615038172988 0.03892289597072511 0.28389709376638284 0.4778849009988877 -0.27735090845057286 0.15747154272857397 0.41955939223852456 0.2537162884774323 0.7244946439686878 0.31151923550088495 -0.1059791184777985 0.28027034556255775 0.6472467342233379 0.37607867378457416 0.5950750140700655 0.4247648111619354 -0.4796986426236049 0.2515472845271345 0.07414530858972347 -0.6648369731781703 0.04030446937269808
-0.3195466334618089 -0.32818513889782336 -0.5924793544244168 0.034005864346327304 0.015206686846785496 -0.6322908807447628 0.4059720329114016 -0.0460350349953157 0.6235490017139974 -0.7104323270271286 -0.2897354973028251 0.6732741182946357 -0.21400061454598596 0.4691064580589427 -0.49761601417302403 -0.2756818870288923 -0.4525892610389683 0.5189417015531916 -0.2476922513549841 0.8085274656569525 0.6154251923955218 0.12884901864439943 -0.34099987115878283 -0.0012561329959719192 0.17314847569114422 -0.500499719597435 0.31616874054774496 0.09970404675116738 -0.7474942410391854 0.632994083621415
0.1663224056453701 -0.6711536128208155 0.17165579079066695 0.3417189163834841 -0.4109757767698302 -0.8355583422579081 -0.1051309058280432 0.35292639358472894 0.27228974026762087 0.10355903193220442 -0.2507458228408802 -0.17879602959175941 -0.5642384452554259 -0.4066583616157075 -0.8942968184267199 -0.4924700907254865 0.22385286542672028 -0.2765517082009745 0.7373717006491245 0.41672374135442614 -0.751024767935062 0.5239139677527045 -0.5364834769174256 0.5615690922857995 -0.02797341092941247 0.3328302922240155 -0.33760395182170855 -0.6625889441494732 0.393438285864873 0.6490887542278335
0.19934514341495493 0.4316900022098674 0.6122546187048599 0.26929328361605903 0.26626183691836797 -0.354233688536639 -0.11017626080329361 0.7666010726939256 -0.3410053544984138 0.6474792019904678 0.17607557575829708 -0.3457519482742508 0.7076073033276493 0.5563989606956837 0.46727076294005054 0.5214790509172845 -0.2923169144958824 0.20239020149486997 0.6981721065527764 0.03270171712658986 0.2486719067104855 -0.06551481261044473 0.6142696614923916 0.4689799214809449 -0.7865790093013115 0.16691574222965413 -0.31130528730775775 0.35104310612433554 -0.4859576504122435 0.1133909068331379
-0.45399729344955014 -0.5772176512678553 0.5539554818573488 -0.5305035495466746 0.017358330707181447 0.40105727987707324 0.20965946112261247 -0.16365049316098748 0.16274246663559402 -0.685512016704525 -0.47192870101334455 0.44598219981252607 -0.6426502544094986 0.02428670930022326 -0.4351214800430304 0.5307499110523348 0.22658214743275812 0.23357698266085122 -0.33354942081928785 0.7401739431129966 0.7319524190961273 -0.08108526284109903 0.4813520046973486 -0.7860842238036492 -0.3653739884247373 0.201823065859556 -0.5215555335905457 0.6183795211118871 0.49120659815347584 -0.6413721646068542
0.20775283335667719 -0.8349768581442484 -0.46921178469054214 -0.5306476405470375 -0.10370361263701346 -0.059501220132218494 0.5534712201326707 0.2944415878814735 0.6587773469992255 -0.7835161426399903 -0.15923598636329364 -0.4569461467931275 -0.6611251842015285 -0.5610592918033636 -0.8244084703930981 0.2783121244693855 0.3741861665865382 0.4070081008681922 0.09803903178035846 -0.5909309746945408 -0.10106299399636799 -0.4621929311050428 0.5924884135225205 0.38840048986023884 0.48449976704817566 0.4290935691378622 -0.13399291264584653 0.40525145317856515 -0.49592792534681635 -0.257824699778102
0.345964832911535 -0.551104640808201 -0.3901268494740039 -0.2767955301406727 -0.34962387537450984 -0.3498240506265238 -0.15575767698743456 -0.7005866287067345 0.48430408898393446 -0.4608576649336195 0.33053179815904343 -0.7057787952402994 -0.7822082386169563 -0.21518935284762492 0.33316169837899157 -0.5255687280512384 -0.12470938255387332 -0.13171707097789753 0.28910537773280254 0.5266112603622105 0.37661538799426353 0.2832758277095955 -0.5469926313229443 0.09772781159709835 0.7807121781558718 0.04858198286853386 -0.2981441957312565 -0.33411460012078914 0.42551206184139184 0.26721114506118004
-0.3345219904658726 -0.36804211099167594 -0.4706530660343229 -0.7242843581800494 0.38572153273802884 0.28720425507065894 -0.2953074104419227 -0.22554493230079747 0.7805071121348282 -0.6855044552172728 0.7087182727020839 0.5501564386277966 0.28401372913223827 -0.3393713299020597 -0.2926693018280973 -0.49582011264921727 0.59356296873938 -0.5031723622995776 -0.08292222319805624 -0.769210972581607 0.6728889217671905 -0.6345823378129664 0.12492258647982495 0.7014859586132712 -0.34008336284332685 0.39021560758747625 -0.7060798048576211 -0.2873967577521315 -0.20401232687245413 0.3346170047057198
0.5211467150318294 0.3747357518885494 0.625884333605544 -0.2830979247354194 -0.15029844399934916 0.11671776804661754 -0.04994946616122637 0.26449350247310366 0.48803008635402056 0.6021148623841969 0.1711171307006954 -0.12080397313071274 0.2296741716437982 -0.6463991717786014 -0.6933145567068959 0.60728127165418 -0.6165369614067111 0.3836867679537451 0.6368463720447826 -0.24138790658272746 0.5819785915395399 -0.5698939216797769 -0.01960431317885653 -0.44509486878757704 -0.7736094347128556 0.30493297449736717 -0.7287131217206729 0.4889463363325649 0.25228741492215284 0.0950760037080747
0.11926094034238975 -0.402749017329095 0.3845568990392882 0.4571193284188665 0.08833842830785334 0.27724478968042515 0.6246089938892998 -0.29381519792575744 0.706834635600785 -0.7276855600045534 0.3526799137927319 0.36535770864303885 0.39541993880879395 0.4420889449983896 0.45235386167509595 -0.21144149193259587 -0.22736040262010823 -0.1707601291798918 0.14247944107896646 -0.11343771371991422 0.23429572926910683 -0.6056090438605726 0.36434562254272834 0.2765341812191296 0.7256846761925277 -0.5097992407737774 0.41790550351131855 -0.1129035903152478 0.48482366575289265 0.5003788510857923
0.1721635847327642 -0.5717319428120008 0.1062987576195719 0.3566022867192993 -0.412000862665437 -0.17856197167024013 0.2761685890770083 0.32739385355459094 -0.5066843846238707 -0.3362977112835854 -0.7041686020437985 0.5007218883677903 0.6357668027395679 0.6153653677992699 -0.6941473185299215 -0.045363646843633705 0.6321812358899893 0.26724226967856063 -0.5178994015460846 0.5871345742894344 0.1385742683717457 -0.170014378877083 -0.5782699233088583 -0.6536601148537656 0.40883584694819614 0.6254352912281425 -0.03250085678885715 -0.08080884429612573 0.03486823559299458 0.6352732101557782
-0.7470902129576008 -0.8015310568154088 -0.4470774982582945 0.7679450221461446 -0.225618527307293 -0.7295771651607534 -0.10048811003347645 0.6287677318899234 0.4585498223482042 -0.22270778168585648 -0.7175827883491142 0.10078069942494738 -0.07143121034514703 0.11574119662928607 -0.6389315538823372 -0.413611237786691 -0.636998111807631 0.017563096529405787 -0.7986820547601204 -0.4481874328691952 -0.6491018662738062 0.09151307451408465 0.6983767100351891 -0.4655464467608999 -0.03913358406306733 0.23369099467315207 0.13652203920269013 -0.0680390438255994 -0.6591570673190775 0.7562156031222148
0.5934486760104306 0.8285402388322203 0.2341966022314491 0.0029726896192720587 -0.18607472634197306 0.21114008147821084 -0.3741596947762514 -0.38023774241720343 -0.5767547813339798 0.3362871646490719 0.6055831996531609 -0.3823545710410003 0.44744962512929487 0.34715068799783383 -0.5466925708419899 -0.2611903887560477 -0.11223409786255827 -0.3811836758994733 0.3949962481667924 0.41661185746624246 0.7849245197598637 0.006740049578185642 0.18549644393590897 0.15828169852159246 0.3914423651805385 -0.6750011426058921 -0.24709050830345206 -0.6452293063832545 -0.7008265906636246 0.8318166734356993
0.6408305424261 -0.2738632052288781 -0.6952152131319711 -0.57423821444753 0.06674700691430203 -0.6307011619215711 0.41382929654762135 -0.4834176425440699 -0.1298253680398971 0.7992482507727527 -0.2850935437422344 0.6747279053112496 0.7482788578347715 0.25507733232513274 -0.3697359448538683 0.09363734949517821 0.1471086595645764 0.33844458025018204 -0.7780964094410711 0.2675131260005868 0.2218493883470951 0.7152231136418558 0.664466037065575 0.37423261999412816 0.40263867531613734 0.5236856819660464 0.5273468301352202 -0.2976694179504789 -0.7096771463007213 0.6503806169644553
-0.11613858295841935 -0.046662652761722136 -0.21725123326355242 -0.8374967040674349 0.561933832290284 -0.7977760422021557 -0.7195964586391705 0.7385010475711161 -0.6961466150048644 -0.08907169875574866 -0.09993455146704869 -0.5420533947812246 -0.2967474868349212 -0.37399994587400265 0.4493477758157553 0.06163849111958513 -0.6162833497450828 0.6326837540610173 0.7178995704208788 0.07350248226101715 0.36537753969311704 0.34853644492451213 0.1455191792539247 0.1580706629203713 0.12520912816220933 -0.7034774664757592 0.5361359036427893 -0.41965863595742514 0.6714102203489505 -0.03518950305009037
0.31933427330541087 0.45529985864218303 -0.5238891145456223 -0.7172638655837207 -0.32649017372385986 -0.6466516408350693 -0.17200046980699138 0.49878303061660617 0.6376725216289606 0.38909261364651015 -0.5549028305558006 -0.5732213820852644 0.7635214039300159 -0.33255932820543255 -0.3464083249274226 -0.612880010162819 0.6313578192542338 -0.10378296456323248 0.5602743396679012 0.4883878074929486 0.4198993202109212 -0.18097470900517698 -0.6702966191507852 0.3217836466960123 -0.2342589391533093 -0.13184145804602684 0.4808276906180104 0.2578191795213613 0.5583504907565306 0.18489360661085236
0.058592472185328114 0.5421716851866432 0.37036150889330655 -0.132740062102112 0.4064289788043697 -0.8115080772965894 -0.09520139103630731 0.3734140063058318 -0.28509188782970984 -0.6669455402150486 -0.6094375207005654 -0.15463239872478793 -0.7050273946063629 -0.6514730919065944 -0.6871199255758467 -0.48762352700365785 -0.4130071628657059 -0.454257825199782 -0.6495247654951845 0.6193791346755443 0.342424224184133 -0.21683823291283663 -0.4844531945862498 -0.14354764346419974 -0.3613015785408775 0.015480756732472387 -0.37850607291025085 -0.7332025004264665 0.02750664213155435 -0.7379965409949936
-0.3435314687304688 0.35903170908399534 -0.12157647588725262 -0.47726808105993807 0.6774092830035164 -0.0772186674130722 -0.2040566536416646 -0.5670497591559875 -0.3912273618218064 -0.5914402071921018 -0.5324530950054666 0.14310703165919778 -0.41894044910665174 0.3644829453672107 0.6138623139455898 0.507939743599098 -0.5004672619338734 0.08068315967834569 0.5966783409375428 -0.12440409181390326 -0.07107885376998271 -0.08770517402084799 -0.7612169638710528 0.18124697314339316 0.23224244603137742 0.06822941369689009 0.05144147051669416 0.16467743580649447 -0.6306700615499784 -0.010945875361644212
-0.6536145298245888 -0.6080828410881258 -0.39121923607431486 0.22295092656861681 0.3865726947232817 -0.7376223036485315 -0.20000466361228852 0.6681287278759988 -0.7297042623551614 0.4133717742073716 0.05173382716034228 0.7216888807887679 0.6638711240404095 0.45460356752034264 0.8433278537345005 0.34510575344071287 -0.485867843753524 -0.31694191948527434 -0.07836128191334367 -0.6788194144861196 0.7048923503382902 -0.3004458952680474 -0.156976177219665 -0.6339951085270352 -0.48364553654675263 0.38016160455644166 -0.6019620780690436 -0.7537556209497704 0.46160771264922906 -0.26540794485932373
-0.07477248000369892 -0.18234764629616734 -0.6514768405791528 0.39874892011751223 0.11121241612086276 0.7066619691201033 -0.1296304473620285 -0.10341188607527903 -0.33855701131849575 -0.06144570322664992 -0.3403653836317092 -0.5568141778770234 -0.3688392516916183 0.3707336333686678 -0.2927229575236184 0.5238356619457237 0.08106968277042886 -0.4776316982776768 0.7304147104353306 0.10845149966823561 0.7840676876454671 -0.1771975260557218 0.7731462192417279 -0.251560691452649 -0.5121572437316595 -0.1893754296134397 0.23386592965185335 -0.22481572435558 -0.4415452862028734 0.34832446550608714
0.3290188232643556 0.7447453178694039 -0.517184252423023 0.005886649508495139 -0.0597148837802572 -0.6489829880735143 0.37378835300802526 -0.398728014579312 -0.3383754888495398 -0.3367847428010174 0.6658969726102882 0.1521205201352139 0.6936438686287116 -0.7700563002576098 -0.35023636785803597 -0.10699758668170527 0.5034331942579091 -0.5267896178137953 0.16519080624786328 0.6302837378453588 -0.44372904647778993 0.40495461169179187 -0.5947530620865108 0.7105941450353512 0.049717857672303765 0.039501004769773626 -0.26565271869606283 -0.06030199705255904 0.7617191141262422 -0.27003493772853804
0.7008203269172167 -0.33207484027092377 0.3328023372997886 0.059917492330098326 -0.014283126479057164 0.4729782583611209 -0.7378701370010732 -0.021607907433876868 -0.5774590277817379 -0.6153339053977734 0.3174505904569725 0.5676163813957035 -0.0590116876989032 -0.5488096904410756 0.1348485766936356 -0.44363662636273804 -0.4921061642078682 -0.6590667587059242 -0.37089288056949926 -0.01517469069124784 0.1281462885737094 -0.07829608952934775 -0.23785497467107136 0.07814138343617043 -0.30970035467278645 -0.2100870018146523 0.5992587873551014 0.36984786359507144 -0.26059065895863615 -0.6928123937528443
-0.5604271895897456 0.43264983234037097 0.6958169441559935 0.6016798986735005 0.5367376538198197 -0.4459279004940292 0.6097080264525774 -0.7664319257197468 0.7901549176184871 -0.6969265636241999 -0.20515726886542837 0.23821610697029838 -0.4488190341223773 0.06007936732018964 -0.5389680331818271 -0.3975008392157607 -0.7317394427736433 -0.5255998120941183 0.3536580705319703 -0.4286593376634398 0.5566898041794166 -0.02137380492228673 -0.8118533195291722 0.7463199007463858 0.6935506332137819 -0.597508352041239 0.1859676773328504 -0.03907673123433742 -0.39105276371323866 0.33842125647432375
-0.48688079055264094 0.5822924321595114 0.14180518724826055 -0.13852725992791387 -0.5271126470071392 -0.4306390253081443 -0.3105666649688364 0.3918692653069959 0.41559024986076865 0.25710033799968474 -0.13393658082886173 0.7239816122298662 0.46761760452870044 -0.1759323353431448 0.7213702530979975 0.5739515732976622 0.17928267860429256 -0.28417429646651293 0.8066473649152783 0.4488179554299345 -0.4571944010321738 -0.53121604870915 -0.5913214300462498 0.28431661452169493 0.2970983365801754 -0.7198758091493922 -0.3327605389217054 0.6219327770716873 0.7990866016840397 -0.5075856654146165
-0.039400505807582656 -0.7050415055570332 0.2461676035261131 -0.42129372582790153 0.15984519346309556 0.5792774377047126 -0.42356468041130985 -0.7668412960426997 0.349848211555478 0.3869360827779434 -0.20515958647373178 0.6781833603614627 -0.6606318396838885 0.4441251625810753 -0.029227261550993096 -0.39053607403222346 -0.1127018288722408 -0.45923475331120306 -0.32701218823259576 -0.24392002718135503 0.687897235004191 0.1331417401909002 -0.5417532017859918 0.321136851777279 0.031265794713687026 0.06680043208416517 0.37003032584441 0.05135843982573547 -0.2667018166663721 0.034727131452438505
-0.011081331327809281 -0.5608508136066853 -0.02012245612482587 0.6534209432448271 0.6102715479451651 -0.3691594254834059 -0.10246490199141818 0.09449426159467095 -0.011017486002687213 -0.7574640679195178 0.008759406218003004 0.6501823447268232 -0.17243557817204777 0.07554181119928141 0.3369239176079327 0.4755825823763246 0.01576469786652464 0.3675933819948491 0.7100038149753113 0.7284093499523909 -0.08481389407468698 -0.05745853861633446 -0.8363009061335887 -0.6737321980199108 -0.6119250297996497 0.15690826073211753 -0.1953930049709279 -0.7621440931530039 0.3927487100751255 -0.16178688859421528
-0.11239453780887518 0.5865552242153373 -0.33057947068191074 0.44494310981020785 -0.37413024856940735 0.06175180138832566 0.7618741726758349 -0.48532549062743435 0.6518614273671559 -0.5384998161849177 0.8089661237163985 0.25403943488940406 -0.2924975205741659 -0.6963683422861666 -0.15332988497468228 0.29068507709772834 0.7512628670784679 0.36889240881723545 0.47805239874519917 0.2772599684424607 0.27792900098829043 0.6138969619535555 0.11666362132414491 -0.5386846183613383 0.5227753969877493 -0.4408157366049939 -0.39573842111250385 0.03113096098148964 0.33565362735369725 0.5870583083096936
-0.48204017404309324 0.09333815095937778 0.26696255820653425 0.04426095940815765 0.42520797938701116 -0.10623624372586808 0.1259627506999414 0.5955436549006273 -0.7441206558682848 0.30327700267186786 0.6424474279573534 -0.16585964365210512 0.11362526708180946 -0.82279561878217 0.6290131473557358 -0.6966195027363264 0.5666793175414605 -0.17997043015319758 0.5881156604658753 0.030975052721721054 0.07062652689230524 0.02290779526431102 -0.7394867790212968 -0.8310778757615812 -0.659939510769964 0.6740033669379268 -0.822444119817071 -0.4643206906538795 -0.09195064900472844 0.07445466556382167
-0.5220789440659748 -0.5550685922407237 -0.32811818799064657 -0.20706211910600264 -0.003501567414014044 0.5926522520605275 -0.5536859435092981 -0.16068430747351128 0.634652763700719 0.6605396888993897 -0.019154827091327608 -0.0003443660411788904 -0.7193964978946289 0.03440951827037889 0.18959438156082184 0.020014567753065062 -0.3610320266300763 -0.13624767542940483 0.758714135361955 0.6331181373139688 -0.31343927863317395 0.25074943109692155 -0.278950881238403 0.16184826069663674 0.0903048745344364 -0.022522432516805607 0.5155053234599771 -0.49159189898150407 0.030769953343336133 -0.06219431446113449
-0.0955673607900473 0.2867037747686815 0.4505214999460144 0.6722424819783769 0.7488316043815125 0.19517000299461842 0.03692461165155907 0.08933012538896086 -0.08196722895343285 0.5018768323846056 0.2866937212766144 -0.6774518990990627 -0.47403099057373277 0.5143002214801967 0.6551264561951012 -0.6000005652125001 0.6571369123157309 0.336156853864339 0.4254414523335534 0.4330439355226977 -0.4624120794410562 0.01654378053259873 -0.18346111538416335 0.21740288808756644 0.07130988711094446 -0.20595133872567564 -0.015334518479586431 -0.3044713884599015 -0.42439707151539274 0.41275804514559894
0.09613280963736509 -0.6621960200824453 -0.7464182301689058 0.8052995500298381 -0.5584327827458305 0.15864596190329922 -0.2717796084680482 0.6739777830129714 0.06129362219794254 0.3296966294392384 0.10726737439278589 -0.5295464266237395 0.7964493301345212 -0.08353242612337487 0.049914225070615076 -0.14907324740664296 -0.19355434560544355 -0.4731599666438877 0.6049355706289936 -0.7455236093169088 0.3161545736014529 0.7379752083070881 0.7648016309698441 -0.4467819156828221 0.41407478269347536 0.24823069753305244 0.11996908507183845 0.2370159962978771 -0.4467528473754673 0.7496356812579663
0.7899028209581037 0.7617165548864309 0.4065822696539629 0.7031080713213498 0.29805975485135666 0.7592417281078231 0.6751635680411467 -0.5642797896046454 -0.13733014393046944 -0.5800611021277654 0.23740559400593833 0.08786828093102289 -0.7350703561060035 0.309898254812472 -0.22115191963302974 -0.3255764147056529 0.7893401011372575 0.3668161440600414 -0.3240921774598565 0.41134259804021395 -0.2242304896831746 0.5354084862877173 -0.4999758729034736 -0.1556439957830812 -0.3415646023983284 0.14496440362911617 -0.6955870257614216 0.7956381424272585 -0.30942225097997983 -0.38748161662568054
0.533573228799776 -0.6487631787915962 0.7855700258441979 0.2043834759805527 0.7414439197413062 -0.23576483930520886 0.5781918752348819 0.19186326470035625 -0.30470623095879557 0.4674229047055721 0.1933984793874576 -0.060316277904628485 -0.4983304269754525 -0.5966212017281418 -0.5567939043327212 0.7238529489581497 -0.5921191460955588 -0.31983878121996123 -0.4156773807147746 0.32606714472997944 0.011375024475576194 0.08537964134941493 -0.3569345512599956 0.2537893852761827 -0.5674336434080137 -0.22414669012195546 -0.16951782566314683 -0.19325179374769896 -0.4753352017547914 0.7835001262879319
0.6785870782783615 -0.12405580078432282 -0.731662980210609 -0.4300027661657518 0.4393793943217756 0.4873552091790209 -0.572631713354803 -0.2587690972216245 0.5637428912251042 -0.21537711213396094 0.1168523731069157 -0.7660695021879949 -0.004336930795669511 -0.21268429441428863 0.49623199405088797 -0.2159935972823543 0.5567442344948452 0.24360496994700895 -0.23697683075626236 -0.05254961072142244 -0.31061374079941906 -0.7201216679993694 0.7640821952948229 -0.007518704452087353 -0.15167983951548408 0.6689085814491541 0.2530245270204677 -0.11596733748680851 -0.1972279879749705 -0.6112137309178213
0.05489224474424785 -0.27391617554661296 -0.79237433056148 0.3343598353557386 -0.0018315306976851116 0.5336384463699091 0.42759166144864624 -0.3577811041214238 -0.18588707812911054 -0.031032222182833007 -0.810799343982752 0.5176225087641004 -0.6699737009512093 -0.6264631648515656 -0.053819240718227 0.6825174551562347 0.02317380812657119 0.13469545945408024 -0.5383617655239792 0.33343110792127784 -0.772159108743817 -0.6495323785211568 -0.4355297970535768 -0.525456007247259 -0.20549831194417617 -0.04968985109563056 -0.14502047769308293 0.3156811028404436 -0.45716058641262314 -0.7245380435008393
-0.05786738620351859 0.7599753640939775 0.7372607556449498 -0.17302770110777382 -0.5113059877175894 -0.6915785367764846 0.2713780353502327 -0.10059567775646967 0.7325790387604565 0.19231936767330923 -0.19716277978186686 0.7585414913949177 -0.041598423015073695 -0.2956085228557372 -0.15631495449402472 -0.6335904391739923 0.36826812158083994 0.8037573006265258 0.15287022515554485 -0.2079100719790637 0.4874833713512663 -0.24319009719416093 0.3553941537495464 0.5931371550487722 0.4971659844178833 -0.10712153188403024 -0.10926768730194925 -0.6580853387394422 -0.2120227333578161 -0.7330836399136633
-0.5165824017305396 0.34034544659323235 -0.5056067612447087 -0.03206018054602232 -0.2315949293435317 -0.4030091049136555 0.09778705250746417 -0.05012291901087404 0.7061423575574235 0.2119059012584535 -0.38124482987594016 -0.12257075325407692 0.35730567698289367 -0.33547565292366766 0.5513200262641814 -0.49790178773924626 0.14131818491881293 -0.46527537561169724 0.7285599032782518 -0.6684798877021427 0.3981241692378696 0.23344978916342204 0.5300501648393728 -0.09785378460822003 0.19333075709699735 0.6872753652729174 -0.1920561175404973 -0.5795800758965927 0.28742920041781295 0.4329667042622129
-0.2210197316329621 -0.3857702417420236 0.34347345780777633 -0.27621314241092276 0.41334381098131673 0.09253870881131529 -0.3253737688730238 -0.19009798152321603 0.24215452818832964 0.5392832126443912 0.7921782794329703 0.27629560673605386 0.0776640464228108 0.5037937085801978 0.80320023071888 0.44227552626059935 0.7974114023635889 0.8041732659665836 0.5711727514415084 0.055873859896245846 -0.35610121940348566 -0.3167188472763761 0.7756624643766213 -0.7197162120159062 -0.4911282971525311 -0.2851424981702088 -0.12391043327385151 0.5618267030066251 0.44990142092459046 -0.5061947091793652
0.2612654103446387 -0.491770512034973 -0.536875224207453 -0.013684214768777746 -0.024353639985127674 -0.15282576764101835 0.5614709301077602 0.7105618560885026 -0.41820925418657634 0.43439341323219177 0.019352339058633244 -0.17877958510472525 -0.65333257765849 0.5648324921690602 -0.2464050033922545 0.06399489137899314 0.00598727458688781 0.7331124020645778 -0.7617891376977848 -0.43033120259628854 0.19567546448925074 -0.08693113563984856 -0.10143469634562402 0.6394326685404579 0.1441164680621412 0.27692905622527414 0.6290935098034931 -0.23337991384929221 -0.44277678336053233 -0.03167393384116744
-0.626662156414755 0.644213989808738 0.11424069462399741 0.053199934677538446 -0.7833554086123263 0.17527695276008345 0.6874636485044785 0.35006485079177646 0.16698332902519428 0.1719041837484966 -0.12183011863144345 -0.4833962876044675 0.7500553539820302 -0.6694301883873188 -0.6957010825741788 -0.15845710875793287 -0.028454530524379608 -0.5974676125608626 -0.7734821499264044 -0.50397536262801 -0.5224790474794088 -0.3471331924646893 0.022621953992900765 0.7212061847167529 0.6528468841010285 0.22456899516433546 0.003118180043848209 0.310938573920607 0.3779210905997591 -0.4300602117351082
