0.4104858753953068 0.7746062604947265 -0.06823041326544897 -0.05310952268474921 -0.7537813421796484 0.650388205616639 0.044483666624545275 -0.4987376279350719 0.2276409275015287 0.7712587516040548 0.2662018179821733 -0.30788723011037433 -0.015047755899563598 0.31353063007333937 0.7013741009350971 0.16536776080535134 0.43722072436003545 -0.7614880597212296 -0.004127504136961366 0.5877920794947992 -0.45354456062338117 -0.24622333767716884 -0.7991293543108604 -0.39787617128763675 -0.38454744734757595 -0.4409488125108108 0.45720516984159926 0.6949298655203652 -0.5761385322223219 0.45854598881970626
-0.5446703269999285 0.24989022509108655 -0.22003474840521273 0.023065960857839705 -0.07506727115741836 0.07264119318745214 0.7995752009111732 -0.13615287417965757 -0.1775535283457578 -0.26792321694836624 -0.17709322250978762 0.3691036818803078 -0.3881854923559318 0.6480636307035409 -0.21940187926861676 -0.39913680411126307 0.781119650374994 -0.243065852774932 -0.4031530722281607 0.6407154259297798 -0.07949224683172497 0.05894483958018242 -0.38055700386054986 0.3063403942404055 -0.7797375758044632 0.5813766655377812 0.20030798207605846 0.40828924377141035 -0.7613776816675311 0.1833735400901016
-0.6397055068201578 -0.4364902102383274 0.31448418599345335 0.4251839981526075 0.44717591733930917 0.5173977578723187 0.21610045334788738 0.46133457707275694 0.3859251389223639 0.09437973458285949 -0.03315523259946311 0.3670185451420669 -0.44058515843637686 0.6027839382951342 0.41596087044897695 0.6463431595640478 -0.4103695895963457 -0.6880362053858391 -0.4810785271153833 0.6434322524797499 -0.2654399672696944 0.6493354632583135 -0.35268221153776835 0.3698262981853808 -0.7988921548377067 -0.7806682196637778 -0.022244177926221305 0.4693805727801121 0.1645005776267081 0.46322394751816726
-0.6039554163094983 0.08757569018688302 0.43140639476970094 -0.03563237616998364 0.24223966533540928 0.3778506590241054 0.24851624925992236 -0.6578241916015308 -0.28116473185505036 -0.5180505833190567 0.6768196469511076 -0.12620018950651837 -0.06859049416984009 0.2653058372457252 -0.2050960684013492 1.0950844159762052 -0.08115350155637338 -0.5413844717934767 0.06453287255006056 -0.5944475936295633 -0.16343670869707488 0.43718044974523523 0.035249511483033076 -0.30389460656504397 -0.8641189662393645 0.3307710390307654 -0.7951736460157788 1.1084388773745188 -0.2503124238828097 -0.7149530173759466
-0.3598907532976061 -0.044973407210316535 0.35922540206040066 0.08000728169843827 0.3296578708723118 -0.7374650299612219 0.15094722002467087 -0.49722081985114314 0.813141269743094 0.539784650750255 0.07735318195180284 -0.6981547194328473 0.7064506984217981 -0.5167830526790709 -0.480655620477418 -0.15494283153875604 -0.0072869584512898706 0.25665118858778807 -0.2791024714930694 -0.5087129122666557 -0.505397694494714 0.7022762254391154 0.0531983718358072 -0.2583359654396564 0.18603193293137754 0.4872697622714837 0.028947035224874514 0.16178200996499487 -0.6597333979329534 -0.9391879956506135
0.7281757545800741 -0.07254111172104184 -0.23073076978705565 0.23053967822354896 -0.616783674342682 -0.28697621304860976 -0.22539898228479824 -0.18261572265606363 0.2905587896948449 -0.7882764396252835 0.7338611434033869 0.2100602869675518 0.4617983216302433 -0.07172142408154045 0.467595009020209 -0.30925497027505405 -0.7830914574286222 0.3264401049194155 0.28683381549868076 0.03409669917029519 0.36281795973109837 0.33138092215515574 0.7445818649795232 -0.032018773450528996 0.04278343021170968 0.39815507273660433 -0.7323373969047443 0.005925849682792751 0.9571580820915344 0.2413863827781101
0.03664887157037252 0.1316996946793148 -0.5397510495477732 0.6071192462976169 0.643474950469829 -0.10197894448625097 -0.0398060436269651 0.4619852300658519 0.025464690241244044 0.2616417245444039 -0.7353189028840119 0.049450305669951844 -0.5904950416974559 -0.13915385801986968 0.21871130934324834 -0.32532204248511815 0.7419637032477714 0.1490265780366211 0.44327642751835916 0.7044431238254789 -0.3400540267902634 -0.5222313909663221 -0.5791528860594667 -0.7012198820076495 -0.5731154142947078 0.5861902262502059 -0.06877515534771297 0.5665638601468342 0.015805707870355394 -0.47197658978156526
0.11278587479056543 -0.27914646570262064 -0.09409730416657396 0.3972712246095787 -0.22617659927777456 -0.7839988452003149 0.0326510042547087 0.1736568304850238 -0.1510792425357452 -0.05265243622767397 0.21129539116113194 -0.16591664454440047 -0.5927878576059796 -0.10852308533908095 0.12201621333566787 -0.19360054486299358 0.26516813608017337 0.08459898560445869 -0.7694885384597475 -0.039746409928828406 0.013682883025104967 -0.5311640746539533 0.26348359944133554 -0.7773271975832814 0.2945198226742059 -0.44437172337680697 -0.8488920102257441 0.11889070287535615 -0.47039990815724797 0.29011453611928234
-0.6680554620918522 -0.3324509776657465 0.42976853575873974 -0.9088390044235087 -0.5292468730550137 -0.42171158676112463 -0.5999303184899197 0.26594523311630075 0.46145576696604157 -0.26617348262974166 0.3077109978088981 -0.6070575495561865 -0.3730360595323602 -0.3306326259784019 0.0019368743061238972 -0.2936529116549316 -0.48496080284955656 0.23735106113461982 -0.7006545973351039 0.0023077308825299584 -0.35994998606464407 -0.44408140308880933 0.18705580853093579 -0.964159269845438 0.06345258681244202 -0.10985141786406243 -0.8716912805379238 0.26630449292196917 0.12745093411688918 -0.29755546219570966
0.28033949763083865 0.060168763150176406 0.4714266903115738 -0.2674783478762777 0.5713175939726377 -0.6843810121635578 0.24173643962806446 0.6104682206402212 -0.2000901508348598 -0.2789568984582321 -0.18395257365535903 0.4318455096931105 0.048669506874442256 0.09740239577081014 0.500712158716635 -0.4513747128541786 0.7427284054408547 0.399964097634012 -0.025369727537953544 -0.07236872778326803 -0.4867882740774652 0.3091343521205407 0.062205477734753094 -0.596922607007224 -0.15427850832814174 -0.08503164046541206 0.9054620384215086 -0.6907461891638205 -0.684017323705736 0.4210132806382237
-0.49358871451183334 -0.6169826477854129 0.6830708288701667 0.01824475392592809 0.21501574628597303 0.02418403939773773 0.4936555080813748 -0.6497645049757609 -0.03828889521183459 -0.22245671934236785 0.01570156316810781 -0.5872199323965375 0.5307655654098201 0.34478814653026374 0.5250173042683437 -0.2951159055758477 0.13848250538332973 0.627400592703962 -0.009126346230094503 0.6734859239190376 0.5575762333700222 -0.014885995875992642 -0.5010016071250007 0.24509541135104043 0.1511164471909303 0.1893961910759253 0.28979722781874745 0.004588773104433311 -0.09793391220964827 -0.04514555873163037
0.23528656457251518 -0.5997843856904859 0.6287273735310162 0.39302479270494217 -0.15074918600961842 0.4727755942070413 0.13793683358836648 -0.23985031932033735 -0.4209922099794476 -0.436573184230124 -0.1681017812913056 0.5517492250848007 0.14746868148744482 -0.5973534705311603 -0.21128650334963928 -0.44265457965351773 -0.7088827817498345 0.30968670193753106 -0.0852380363945873 -0.07819442475873228 0.1768969331941262 -0.30404805200595625 0.5751985260459819 0.6877854545807839 -0.17278270259753178 -0.4861350594611745 -0.6368368705335067 0.1698323738751541 0.32032398736149376 -0.7015707175225963
-0.10193331568941863 0.5067678596279173 -0.2290141641275397 0.8241611299892493 -0.7060484932912121 -0.31600892372596107 -0.24941464535358351 -0.23081796273872546 0.6006569400197662 -0.27097176138907464 0.16826651330968442 0.47743355815641975 -0.252435651810783 0.7313250442846525 -0.32947002382351515 0.6754670386695217 0.6571324697347273 -0.10774670950041501 -0.6820860284065233 0.024652916936311105 -0.21792487352721493 -0.12062701217438146 -0.2599163336706882 0.8001999548569896 0.06081324244809126 0.5216992546898243 -0.3280643527757945 -0.1280392199995021 0.22950891419728486 -0.17618585906254214
0.6711319284237399 0.5724115465851602 0.18662577663916086 -0.03855625008904139 0.5011019380421424 0.4101577059110075 0.7931896956776838 0.7063064182097845 -0.6886411384899727 -0.3858856068006812 -0.43286078713279186 0.31006827340869597 -0.08431550700336439 -0.6688630404700201 0.28348256996464305 0.6049489086182684 -0.20842624672644655 -0.7372765450933503 -0.45659289973149253 0.6192653699949578 -0.30416369478346383 0.6784291914359069 0.009928025897629901 -0.3658485557982093 0.46001821486543437 -0.04598449451334531 -0.08980749386854939 0.5149202142728051 -0.3472957933625898 0.536393325794649
0.5689916090558241 0.5842345596331981 0.08127082700266722 -0.2309267228597263 -0.020866643825087825 0.6459530975313319 -0.0074996045847985126 0.680708092109672 -0.2879934086571746 -0.46029035548735164 -0.6678339869200504 -0.3306066832274677 -0.14826086678851225 0.2882558758674121 0.09469714450765074 0.24953989065706064 0.33539702905045066 -0.2660625381538974 -0.5549497965775569 0.3624250453798248 0.0991310503032227 -0.03633282238650563 -0.16883532848259894 0.11211897244076979 -0.6929984895146946 -0.18592810554062872 0.8547163560495857 -0.5500607588377657 -0.6947033696181714 0.8200087427023709
-0.5208836821068076 0.005965917346205952 0.5182069677316018 0.08638069035649124 -0.3168351739031317 -0.23352535465860627 0.4868848842447071 -0.23365412836090033 -0.10007105589511227 0.7269964398055084 -0.36268687146330386 0.6271911617958842 -0.523092255980883 -0.5707165036233347 -0.4559736048840264 -0.469374294592594 0.6878278151296785 -0.230972216259892 0.6500101928225026 -0.5692016059003314 -0.4634190265326316 -0.27422335193827513 -0.778911842512897 -0.4588354015893078 0.539346984272796 -0.34701419507276654 0.3926450691953455 0.8555748302396857 0.6423078643138905 -0.27029742348423125
0.8339699302601153 -0.6303395402482458 -0.4404238292369387 0.730780538549459 -0.16428728745507665 0.20945971657738097 -0.2526081953704854 0.253008395772055 -0.03487286962214469 -0.36616971464541137 0.15348262968915516 0.2607291726878884 -0.07685190116166243 -0.10762253384121953 -0.6547640706216077 -0.01190176052128989 -0.6112113369183195 0.09280470098497468 -0.4301064591654271 -0.32302212349037385 0.7088142512139212 0.15205741129068928 0.685242950874083 -0.17273735600745369 -0.7130573559501737 -0.12738777007118077 0.8914582248594526 0.6775411206312276 -0.2813356201392178 -0.2116181629703613
-0.18418470833064388 0.17195009009304552 0.15702976440329675 -0.7483633958612174 0.582395061111859 -0.5647474876219981 -0.19753657852387269 0.3010615741442417 0.6451966727171133 -0.524252525886176 0.30943907381339714 -0.7192513114902646 -0.7992170944401873 0.4310453748624148 -0.14706503092770926 0.18092838389605523 -0.5578770538121226 0.8362933105840274 -0.8406207651872799 -0.19672643719762622 0.2632314247831576 -0.6423242684103042 0.45483603364411557 0.5090963843147789 -0.004950668785524169 0.4901859315924415 -0.48441751785535553 -0.3191674779778041 0.5033772136611052 0.02202332017796393
-0.11081897268429045 0.6355766982702177 -0.8688967829478964 1.0133309814069988 -0.3978047273473249 0.16214752320993628 0.036480355667894836 -0.5782020113116547 -0.42371951328468255 -0.7949871593675968 0.2946441228336401 -0.03480017508217662 0.43713487582620936 -0.800928070461969 -0.25694045822737893 0.07824090684661865 -0.561265471402839 -0.8108715246361176 0.11115773358952942 -0.3864804719212808 -0.8158106192757849 0.37602640303474955 -0.35604495381032647 -0.874551756373982 -1.1185555991459943 -0.41163785800694574 0.4615878641548448 0.8166976177361811 -0.35679629347865793 -0.23811669169645563
0.18040131609545898 -0.10535633323370636 -0.1624304136142612 -0.5314093282654254 -0.48104314171154755 -0.7884241283770238 -0.5799986792414809 0.7269680423303938 0.625895598018875 -0.11760037517287852 -0.7739704470383352 0.6675102153862156 0.46468342725957035 -0.7526933042794689 -0.004869012902400247 0.5319736819689818 -0.37790542408350597 -0.6453454259929334 0.5949096356483398 0.743526639178981 0.2400404849778683 0.05444828238460709 0.030111207146563436 0.03573026863885236 0.040960901951128656 -0.5235506529762296 0.5274465358286059 0.12911504835179366 -0.5806023176307762 0.5817623037782127
0.7442799512137637 0.559347854666458 -0.01704463006579379 0.05633655199174079 0.8665490354871181 0.5134451752181861 0.02645986759889269 -0.4593604814310583 0.19975798174293205 0.08081219619359901 0.4293431356990787 -0.0638458706999684 0.5957047566868647 -0.03331061752187831 0.3097086455694417 -0.37790020752133546 0.5197941992612524 0.550776706101355 -0.25177078973432565 -0.32721453899737774 -0.5775959929148439 -0.5373971608940777 -0.47707451376176974 -0.7122461418114894 0.45271723696323984 -0.361684588930048 0.581113444619038 -0.043716419751662794 0.5112120225272775 0.3825592990382202
0.11994304877737658 -0.15530800156168392 -0.5569606879172767 0.8894340860226879 -0.66262707225091 -0.1403468679293397 -0.27513999705471254 -0.6185343181478352 -0.7418279914092123 -0.5089853035532429 0.22912591233661816 -0.4637941744942966 0.017770387667593545 0.6998775747958199 -0.09313081781824073 0.5396750175359992 -0.15008262944755063 -0.09822303229725013 0.8298434448647432 -0.7695584780905104 -0.21884357312810382 0.2935016458540599 0.43847475829002935 -0.4084867343946028 0.024948827022171275 -0.3987387226504189 -0.4067443651272915 0.465590406601317 -0.6333238780205047 -0.8864312975831388
-0.002255247007396547 -0.5208101102015755 0.8169062801141284 0.4739714510113139 0.06937822431789233 0.03375834065843461 0.254645470533471 0.43340351959018775 -0.6649863005478394 -0.507374130647321 0.1062740432453459 0.03259548755436374 -0.0899025959798308 -0.29153032966110426 -0.36819760597748186 -0.201086044584771 -0.007536667241686883 0.5744046321853667 -0.7021495029202797 0.26563331117644595 0.35374833047023263 0.5890891543881249 0.24005068960700926 0.12335594522607236 0.09102224981262912 -0.22646973086069003 0.7555503253359487 -0.26100242071269025 -0.27330422403287985 -0.44358705171113744
-0.6544288303914095 -0.7312848194747851 0.6575355275565797 0.8415116020104285 0.41414804033568703 0.8057120801846397 -0.3430870517835445 0.1441653619251396 -0.6571400015437692 0.4034835926527979 0.04491238656339907 0.5106464696571796 0.8629556565078444 -0.017240852123890135 0.36227808188532995 0.3263917499583831 -0.6043398398472973 -0.06873286569269399 -0.25726784312870865 0.33377081350900095 0.5665830049708315 0.05441895670189736 0.048939268284868845 0.6877437095035054 -0.5844569538112496 0.4308706542201073 -0.3310452703660011 0.7417676661785595 0.6864330253508532 -0.13532381870170923
0.7403940901179251 -0.5256463851341903 0.26234513221522476 -0.9275549312288109 -0.11664900331270323 0.1614219632697309 0.15369580095340166 -0.679417420153341 -0.7858621462241032 -0.4259951272492694 -0.1329997457549206 -0.4851097233334571 -0.18206099028734388 -0.6523064029494214 0.15576143690387675 0.21187720147898814 -0.5291791444680102 0.4933980437314892 -0.827200710626125 0.6837489792203184 -0.7055970103217442 -0.8867325375901431 -0.5847154318828927 -0.5336088220203989 0.542415629721699 -0.07056477411903904 -0.07278013097730612 -0.28094490936421773 -0.34049304271286296 0.04402936834671407
0.41392155010148574 -0.6793607283545916 -0.4484921242364182 0.34386805299295087 0.7077078177015174 0.6623766950381413 0.1947588844806851 -0.3273660943845404 -0.1541312679044243 -0.8571767868449027 -0.3771908612916269 -0.6147956097726971 0.37739786254967445 -0.4721676452610034 -0.6579823290332357 -0.14067101321872058 -0.2914863329240736 0.07225185849830432 -0.030865959437609437 -0.6672741616863701 -0.655960919485515 -0.41236858937271975 -0.6515437122298694 0.3346121939040865 0.7098569022222488 0.025122839298424716 0.30628753648262663 0.19120953350398026 -0.6738514566146618 -0.5343888057315683
-0.22397449758840166 -0.2851076372202572 0.3237138417733187 0.42852420820516596 0.6286649071061324 0.33550542226256097 -0.252503698895995 0.6006121739054421 -0.1768133793613952 -0.7748457250071422 -0.24123309648174684 -0.7432970677205469 0.29923383463806347 0.32819395088137066 -0.7419862762373088 -0.30117758944089923 0.7356464872488969 -0.8364089114484322 0.8074453864359601 -0.7988427326116057 0.31212879747247335 0.6632633507330759 -0.6894909370488556 0.6611460194704644 0.053239406571963806 0.38056219784343037 -0.4828612813383119 0.6496566954793251 0.32387962325994163 -0.25299503812021845
0.2974470956702492 -0.5769582033160133 -0.9369476546487587 0.42587271915325503 0.6021277270852938 -0.22532018401901374 0.05539735539522739 0.4059564571563271 -0.3572636191547248 -0.3060660398254347 -0.21249223220480176 -0.08554158379435473 -0.07169119599619737 0.5328634735823485 -0.19069376622577977 -0.0905712523895147 -0.6194969040319618 -0.5084912848416947 0.3580896448849764 0.640261887646948 0.29773057216318627 0.7094192099047489 0.18541013966254039 -0.7005120785253222 -0.8066923310499068 0.09276379196365342 -0.4265086328066973 0.7081833687136045 -0.3183612792497865 -0.15138771525538086
0.32018120409696943 -0.09869621363703451 -0.43611182672207877 0.8457163966968042 0.2107575454012075 0.5864306582332961 -0.8155243389971867 -0.2521481189869242 -0.7081969146732254 0.21731620040830577 -0.4120860297971167 -0.6612292175799502 0.22152484067194123 -0.7515257030085062 0.5888375146005892 0.807160853866076 -0.5632975041966538 -0.7217420002760709 0.8111203775376868 -0.6674696843059347 0.2771626306518005 0.6430468343955552 0.2570121716996111 0.8169258287414485 -0.680702738394773 -0.6813761688107176 -0.5535564269442828 0.6593387459199238 0.1540050121879626 -0.5642283515516411
-0.37479602767378617 -0.5053957432199789 -0.7616699171140757 0.29343227260365284 -0.7985920274002075 0.7648784871464887 -0.05253612726940892 0.7171097948204269 0.443970885248833 0.03635050874421911 -0.3397110196851857 0.5835135107846682 -0.7568625433134705 0.30573573926661535 0.3797859282538793 -0.3734015003265645 0.3761582857993707 -0.27357179328786796 -0.37098694892389117 0.4480368758881909 -0.05318059805210948 0.36503604311248705 0.3604741936891965 0.3883157079849182 0.7332299543174347 0.06106074402950325 0.6254512210422104 0.32324400495512223 0.19849559070101128 -0.08188103671510642
